digraph Tree {
node [shape=box, style="filled, rounded", color="black", fontname=helvetica] ;
edge [fontname=helvetica] ;
0 [label="TOTCHG <= 1653.5\ngini = 0.727\nsamples = 399\nvalue = [15, 60, 181, 74, 33, 10, 8, 8, 1, 2, 1, 2, 1\n1, 1, 1]\nclass = ,", fillcolor="#edf6be"] ;
1 [label="TOTCHG <= 1058.0\ngini = 0.433\nsamples = 209\nvalue = [9, 39, 152, 9, 0, 0, 0, 0, 0, 0, 0, 0, 0, 0\n0, 0]\nclass = ,", fillcolor="#daee7b"] ;
0 -> 1 [labeldistance=2.5, labelangle=45, headlabel="True"] ;
2 [label="RACE <= 3.0\ngini = 0.329\nsamples = 40\nvalue = [7, 32, 1, 0, 0, 0, 0, 0, 0, 0, 0, 0, 0, 0\n0, 0]\nclass = 0", fillcolor="#ebcf69"] ;
1 -> 2 ;
3 [label="TOTCHG <= 898.5\ngini = 0.302\nsamples = 39\nvalue = [6, 32, 1, 0, 0, 0, 0, 0, 0, 0, 0, 0, 0, 0\n0, 0]\nclass = 0", fillcolor="#ebcd63"] ;
2 -> 3 ;
4 [label="TOTCHG <= 625.5\ngini = 0.251\nsamples = 35\nvalue = [4, 30, 1, 0, 0, 0, 0, 0, 0, 0, 0, 0, 0, 0\n0, 0]\nclass = 0", fillcolor="#e9ca59"] ;
3 -> 4 ;
5 [label="APRDRG <= 754.5\ngini = 0.408\nsamples = 14\nvalue = [4, 10, 0, 0, 0, 0, 0, 0, 0, 0, 0, 0, 0, 0\n0, 0]\nclass = 0", fillcolor="#efd988"] ;
4 -> 5 ;
6 [label="APRDRG <= 753.5\ngini = 0.5\nsamples = 8\nvalue = [4, 4, 0, 0, 0, 0, 0, 0, 0, 0, 0, 0, 0, 0\n0, 0]\nclass = [", fillcolor="#ffffff"] ;
5 -> 6 ;
7 [label="gini = 0.0\nsamples = 3\nvalue = [0, 3, 0, 0, 0, 0, 0, 0, 0, 0, 0, 0, 0, 0\n0, 0]\nclass = 0", fillcolor="#e5c039"] ;
6 -> 7 ;
8 [label="TOTCHG <= 577.0\ngini = 0.32\nsamples = 5\nvalue = [4, 1, 0, 0, 0, 0, 0, 0, 0, 0, 0, 0, 0, 0\n0, 0]\nclass = [", fillcolor="#eca06a"] ;
6 -> 8 ;
9 [label="gini = 0.0\nsamples = 1\nvalue = [0, 1, 0, 0, 0, 0, 0, 0, 0, 0, 0, 0, 0, 0\n0, 0]\nclass = 0", fillcolor="#e5c039"] ;
8 -> 9 ;
10 [label="gini = 0.0\nsamples = 4\nvalue = [4, 0, 0, 0, 0, 0, 0, 0, 0, 0, 0, 0, 0, 0\n0, 0]\nclass = [", fillcolor="#e58139"] ;
8 -> 10 ;
11 [label="gini = 0.0\nsamples = 6\nvalue = [0, 6, 0, 0, 0, 0, 0, 0, 0, 0, 0, 0, 0, 0\n0, 0]\nclass = 0", fillcolor="#e5c039"] ;
5 -> 11 ;
12 [label="TOTCHG <= 875.5\ngini = 0.091\nsamples = 21\nvalue = [0, 20, 1, 0, 0, 0, 0, 0, 0, 0, 0, 0, 0, 0\n0, 0]\nclass = 0", fillcolor="#e6c343"] ;
4 -> 12 ;
13 [label="gini = 0.0\nsamples = 18\nvalue = [0, 18, 0, 0, 0, 0, 0, 0, 0, 0, 0, 0, 0, 0\n0, 0]\nclass = 0", fillcolor="#e5c039"] ;
12 -> 13 ;
14 [label="TOTCHG <= 879.5\ngini = 0.444\nsamples = 3\nvalue = [0, 2, 1, 0, 0, 0, 0, 0, 0, 0, 0, 0, 0, 0\n0, 0]\nclass = 0", fillcolor="#f2e09c"] ;
12 -> 14 ;
15 [label="gini = 0.0\nsamples = 1\nvalue = [0, 0, 1, 0, 0, 0, 0, 0, 0, 0, 0, 0, 0, 0\n0, 0]\nclass = ,", fillcolor="#c8e539"] ;
14 -> 15 ;
16 [label="gini = 0.0\nsamples = 2\nvalue = [0, 2, 0, 0, 0, 0, 0, 0, 0, 0, 0, 0, 0, 0\n0, 0]\nclass = 0", fillcolor="#e5c039"] ;
14 -> 16 ;
17 [label="APRDRG <= 752.0\ngini = 0.5\nsamples = 4\nvalue = [2, 2, 0, 0, 0, 0, 0, 0, 0, 0, 0, 0, 0, 0\n0, 0]\nclass = [", fillcolor="#ffffff"] ;
3 -> 17 ;
18 [label="gini = 0.0\nsamples = 2\nvalue = [0, 2, 0, 0, 0, 0, 0, 0, 0, 0, 0, 0, 0, 0\n0, 0]\nclass = 0", fillcolor="#e5c039"] ;
17 -> 18 ;
19 [label="gini = 0.0\nsamples = 2\nvalue = [2, 0, 0, 0, 0, 0, 0, 0, 0, 0, 0, 0, 0, 0\n0, 0]\nclass = [", fillcolor="#e58139"] ;
17 -> 19 ;
20 [label="gini = 0.0\nsamples = 1\nvalue = [1, 0, 0, 0, 0, 0, 0, 0, 0, 0, 0, 0, 0, 0\n0, 0]\nclass = [", fillcolor="#e58139"] ;
2 -> 20 ;
21 [label="TOTCHG <= 1495.0\ngini = 0.197\nsamples = 169\nvalue = [2, 7, 151, 9, 0, 0, 0, 0, 0, 0, 0, 0, 0, 0\n0, 0]\nclass = ,", fillcolor="#cee84f"] ;
1 -> 21 ;
22 [label="APRDRG <= 531.0\ngini = 0.13\nsamples = 146\nvalue = [2, 7, 136, 1, 0, 0, 0, 0, 0, 0, 0, 0, 0, 0\n0, 0]\nclass = ,", fillcolor="#cce747"] ;
21 -> 22 ;
23 [label="APRDRG <= 196.0\ngini = 0.625\nsamples = 4\nvalue = [1, 2, 1, 0, 0, 0, 0, 0, 0, 0, 0, 0, 0, 0\n0, 0]\nclass = 0", fillcolor="#f6eabd"] ;
22 -> 23 ;
24 [label="RACE <= 3.0\ngini = 0.5\nsamples = 2\nvalue = [1, 0, 1, 0, 0, 0, 0, 0, 0, 0, 0, 0, 0, 0\n0, 0]\nclass = [", fillcolor="#ffffff"] ;
23 -> 24 ;
25 [label="gini = 0.0\nsamples = 1\nvalue = [1, 0, 0, 0, 0, 0, 0, 0, 0, 0, 0, 0, 0, 0\n0, 0]\nclass = [", fillcolor="#e58139"] ;
24 -> 25 ;
26 [label="gini = 0.0\nsamples = 1\nvalue = [0, 0, 1, 0, 0, 0, 0, 0, 0, 0, 0, 0, 0, 0\n0, 0]\nclass = ,", fillcolor="#c8e539"] ;
24 -> 26 ;
27 [label="gini = 0.0\nsamples = 2\nvalue = [0, 2, 0, 0, 0, 0, 0, 0, 0, 0, 0, 0, 0, 0\n0, 0]\nclass = 0", fillcolor="#e5c039"] ;
23 -> 27 ;
28 [label="AGE <= 16.5\ngini = 0.095\nsamples = 142\nvalue = [1, 5, 135, 1, 0, 0, 0, 0, 0, 0, 0, 0, 0, 0\n0, 0]\nclass = ,", fillcolor="#cbe643"] ;
22 -> 28 ;
29 [label="APRDRG <= 756.5\ngini = 0.058\nsamples = 134\nvalue = [1, 2, 130, 1, 0, 0, 0, 0, 0, 0, 0, 0, 0, 0\n0, 0]\nclass = ,", fillcolor="#cae63f"] ;
28 -> 29 ;
30 [label="AGE <= 15.5\ngini = 0.045\nsamples = 131\nvalue = [1, 1, 128, 1, 0, 0, 0, 0, 0, 0, 0, 0, 0, 0\n0, 0]\nclass = ,", fillcolor="#c9e63e"] ;
29 -> 30 ;
31 [label="TOTCHG <= 1429.0\ngini = 0.032\nsamples = 125\nvalue = [0, 1, 123, 1, 0, 0, 0, 0, 0, 0, 0, 0, 0, 0\n0, 0]\nclass = ,", fillcolor="#c9e53c"] ;
30 -> 31 ;
32 [label="TOTCHG <= 1098.0\ngini = 0.017\nsamples = 115\nvalue = [0, 1, 114, 0, 0, 0, 0, 0, 0, 0, 0, 0, 0, 0\n0, 0]\nclass = ,", fillcolor="#c8e53b"] ;
31 -> 32 ;
33 [label="TOTCHG <= 1096.5\ngini = 0.142\nsamples = 13\nvalue = [0, 1, 12, 0, 0, 0, 0, 0, 0, 0, 0, 0, 0, 0\n0, 0]\nclass = ,", fillcolor="#cde749"] ;
32 -> 33 ;
34 [label="gini = 0.0\nsamples = 12\nvalue = [0, 0, 12, 0, 0, 0, 0, 0, 0, 0, 0, 0, 0, 0\n0, 0]\nclass = ,", fillcolor="#c8e539"] ;
33 -> 34 ;
35 [label="gini = 0.0\nsamples = 1\nvalue = [0, 1, 0, 0, 0, 0, 0, 0, 0, 0, 0, 0, 0, 0\n0, 0]\nclass = 0", fillcolor="#e5c039"] ;
33 -> 35 ;
36 [label="gini = 0.0\nsamples = 102\nvalue = [0, 0, 102, 0, 0, 0, 0, 0, 0, 0, 0, 0, 0, 0\n0, 0]\nclass = ,", fillcolor="#c8e539"] ;
32 -> 36 ;
37 [label="TOTCHG <= 1433.5\ngini = 0.18\nsamples = 10\nvalue = [0, 0, 9, 1, 0, 0, 0, 0, 0, 0, 0, 0, 0, 0\n0, 0]\nclass = ,", fillcolor="#cee84f"] ;
31 -> 37 ;
38 [label="gini = 0.0\nsamples = 1\nvalue = [0, 0, 0, 1, 0, 0, 0, 0, 0, 0, 0, 0, 0, 0\n0, 0]\nclass =  ", fillcolor="#89e539"] ;
37 -> 38 ;
39 [label="gini = 0.0\nsamples = 9\nvalue = [0, 0, 9, 0, 0, 0, 0, 0, 0, 0, 0, 0, 0, 0\n0, 0]\nclass = ,", fillcolor="#c8e539"] ;
37 -> 39 ;
40 [label="TOTCHG <= 1261.0\ngini = 0.278\nsamples = 6\nvalue = [1, 0, 5, 0, 0, 0, 0, 0, 0, 0, 0, 0, 0, 0\n0, 0]\nclass = ,", fillcolor="#d3ea61"] ;
30 -> 40 ;
41 [label="TOTCHG <= 1201.0\ngini = 0.444\nsamples = 3\nvalue = [1, 0, 2, 0, 0, 0, 0, 0, 0, 0, 0, 0, 0, 0\n0, 0]\nclass = ,", fillcolor="#e4f29c"] ;
40 -> 41 ;
42 [label="gini = 0.0\nsamples = 2\nvalue = [0, 0, 2, 0, 0, 0, 0, 0, 0, 0, 0, 0, 0, 0\n0, 0]\nclass = ,", fillcolor="#c8e539"] ;
41 -> 42 ;
43 [label="gini = 0.0\nsamples = 1\nvalue = [1, 0, 0, 0, 0, 0, 0, 0, 0, 0, 0, 0, 0, 0\n0, 0]\nclass = [", fillcolor="#e58139"] ;
41 -> 43 ;
44 [label="gini = 0.0\nsamples = 3\nvalue = [0, 0, 3, 0, 0, 0, 0, 0, 0, 0, 0, 0, 0, 0\n0, 0]\nclass = ,", fillcolor="#c8e539"] ;
40 -> 44 ;
45 [label="AGE <= 13.5\ngini = 0.444\nsamples = 3\nvalue = [0, 1, 2, 0, 0, 0, 0, 0, 0, 0, 0, 0, 0, 0\n0, 0]\nclass = ,", fillcolor="#e4f29c"] ;
29 -> 45 ;
46 [label="gini = 0.0\nsamples = 1\nvalue = [0, 1, 0, 0, 0, 0, 0, 0, 0, 0, 0, 0, 0, 0\n0, 0]\nclass = 0", fillcolor="#e5c039"] ;
45 -> 46 ;
47 [label="gini = 0.0\nsamples = 2\nvalue = [0, 0, 2, 0, 0, 0, 0, 0, 0, 0, 0, 0, 0, 0\n0, 0]\nclass = ,", fillcolor="#c8e539"] ;
45 -> 47 ;
48 [label="TOTCHG <= 1235.5\ngini = 0.469\nsamples = 8\nvalue = [0, 3, 5, 0, 0, 0, 0, 0, 0, 0, 0, 0, 0, 0\n0, 0]\nclass = ,", fillcolor="#e9f5b0"] ;
28 -> 48 ;
49 [label="FEMALE <= 0.5\ngini = 0.375\nsamples = 4\nvalue = [0, 3, 1, 0, 0, 0, 0, 0, 0, 0, 0, 0, 0, 0\n0, 0]\nclass = 0", fillcolor="#eed57b"] ;
48 -> 49 ;
50 [label="gini = 0.0\nsamples = 1\nvalue = [0, 0, 1, 0, 0, 0, 0, 0, 0, 0, 0, 0, 0, 0\n0, 0]\nclass = ,", fillcolor="#c8e539"] ;
49 -> 50 ;
51 [label="gini = 0.0\nsamples = 3\nvalue = [0, 3, 0, 0, 0, 0, 0, 0, 0, 0, 0, 0, 0, 0\n0, 0]\nclass = 0", fillcolor="#e5c039"] ;
49 -> 51 ;
52 [label="gini = 0.0\nsamples = 4\nvalue = [0, 0, 4, 0, 0, 0, 0, 0, 0, 0, 0, 0, 0, 0\n0, 0]\nclass = ,", fillcolor="#c8e539"] ;
48 -> 52 ;
53 [label="FEMALE <= 0.5\ngini = 0.454\nsamples = 23\nvalue = [0, 0, 15, 8, 0, 0, 0, 0, 0, 0, 0, 0, 0, 0\n0, 0]\nclass = ,", fillcolor="#e5f3a3"] ;
21 -> 53 ;
54 [label="TOTCHG <= 1594.0\ngini = 0.18\nsamples = 10\nvalue = [0, 0, 9, 1, 0, 0, 0, 0, 0, 0, 0, 0, 0, 0\n0, 0]\nclass = ,", fillcolor="#cee84f"] ;
53 -> 54 ;
55 [label="gini = 0.0\nsamples = 7\nvalue = [0, 0, 7, 0, 0, 0, 0, 0, 0, 0, 0, 0, 0, 0\n0, 0]\nclass = ,", fillcolor="#c8e539"] ;
54 -> 55 ;
56 [label="TOTCHG <= 1617.5\ngini = 0.444\nsamples = 3\nvalue = [0, 0, 2, 1, 0, 0, 0, 0, 0, 0, 0, 0, 0, 0\n0, 0]\nclass = ,", fillcolor="#e4f29c"] ;
54 -> 56 ;
57 [label="gini = 0.0\nsamples = 1\nvalue = [0, 0, 0, 1, 0, 0, 0, 0, 0, 0, 0, 0, 0, 0\n0, 0]\nclass =  ", fillcolor="#89e539"] ;
56 -> 57 ;
58 [label="gini = 0.0\nsamples = 2\nvalue = [0, 0, 2, 0, 0, 0, 0, 0, 0, 0, 0, 0, 0, 0\n0, 0]\nclass = ,", fillcolor="#c8e539"] ;
56 -> 58 ;
59 [label="TOTCHG <= 1611.5\ngini = 0.497\nsamples = 13\nvalue = [0, 0, 6, 7, 0, 0, 0, 0, 0, 0, 0, 0, 0, 0\n0, 0]\nclass =  ", fillcolor="#eefbe3"] ;
53 -> 59 ;
60 [label="RACE <= 1.5\ngini = 0.463\nsamples = 11\nvalue = [0, 0, 4, 7, 0, 0, 0, 0, 0, 0, 0, 0, 0, 0\n0, 0]\nclass =  ", fillcolor="#ccf4aa"] ;
59 -> 60 ;
61 [label="APRDRG <= 636.5\ngini = 0.42\nsamples = 10\nvalue = [0, 0, 3, 7, 0, 0, 0, 0, 0, 0, 0, 0, 0, 0\n0, 0]\nclass =  ", fillcolor="#bcf08e"] ;
60 -> 61 ;
62 [label="gini = 0.0\nsamples = 1\nvalue = [0, 0, 1, 0, 0, 0, 0, 0, 0, 0, 0, 0, 0, 0\n0, 0]\nclass = ,", fillcolor="#c8e539"] ;
61 -> 62 ;
63 [label="TOTCHG <= 1528.5\ngini = 0.346\nsamples = 9\nvalue = [0, 0, 2, 7, 0, 0, 0, 0, 0, 0, 0, 0, 0, 0\n0, 0]\nclass =  ", fillcolor="#abec72"] ;
61 -> 63 ;
64 [label="TOTCHG <= 1509.0\ngini = 0.48\nsamples = 5\nvalue = [0, 0, 2, 3, 0, 0, 0, 0, 0, 0, 0, 0, 0, 0\n0, 0]\nclass =  ", fillcolor="#d8f6bd"] ;
63 -> 64 ;
65 [label="gini = 0.0\nsamples = 2\nvalue = [0, 0, 0, 2, 0, 0, 0, 0, 0, 0, 0, 0, 0, 0\n0, 0]\nclass =  ", fillcolor="#89e539"] ;
64 -> 65 ;
66 [label="TOTCHG <= 1515.0\ngini = 0.444\nsamples = 3\nvalue = [0, 0, 2, 1, 0, 0, 0, 0, 0, 0, 0, 0, 0, 0\n0, 0]\nclass = ,", fillcolor="#e4f29c"] ;
64 -> 66 ;
67 [label="gini = 0.0\nsamples = 1\nvalue = [0, 0, 1, 0, 0, 0, 0, 0, 0, 0, 0, 0, 0, 0\n0, 0]\nclass = ,", fillcolor="#c8e539"] ;
66 -> 67 ;
68 [label="TOTCHG <= 1522.0\ngini = 0.5\nsamples = 2\nvalue = [0, 0, 1, 1, 0, 0, 0, 0, 0, 0, 0, 0, 0, 0\n0, 0]\nclass = ,", fillcolor="#ffffff"] ;
66 -> 68 ;
69 [label="gini = 0.0\nsamples = 1\nvalue = [0, 0, 0, 1, 0, 0, 0, 0, 0, 0, 0, 0, 0, 0\n0, 0]\nclass =  ", fillcolor="#89e539"] ;
68 -> 69 ;
70 [label="gini = 0.0\nsamples = 1\nvalue = [0, 0, 1, 0, 0, 0, 0, 0, 0, 0, 0, 0, 0, 0\n0, 0]\nclass = ,", fillcolor="#c8e539"] ;
68 -> 70 ;
71 [label="gini = 0.0\nsamples = 4\nvalue = [0, 0, 0, 4, 0, 0, 0, 0, 0, 0, 0, 0, 0, 0\n0, 0]\nclass =  ", fillcolor="#89e539"] ;
63 -> 71 ;
72 [label="gini = 0.0\nsamples = 1\nvalue = [0, 0, 1, 0, 0, 0, 0, 0, 0, 0, 0, 0, 0, 0\n0, 0]\nclass = ,", fillcolor="#c8e539"] ;
60 -> 72 ;
73 [label="gini = 0.0\nsamples = 2\nvalue = [0, 0, 2, 0, 0, 0, 0, 0, 0, 0, 0, 0, 0, 0\n0, 0]\nclass = ,", fillcolor="#c8e539"] ;
59 -> 73 ;
74 [label="TOTCHG <= 2204.5\ngini = 0.81\nsamples = 190\nvalue = [6, 21, 29, 65, 33, 10, 8, 8, 1, 2, 1, 2, 1\n1, 1, 1]\nclass =  ", fillcolor="#e7fad7"] ;
0 -> 74 [labeldistance=2.5, labelangle=-45, headlabel="False"] ;
75 [label="APRDRG <= 603.5\ngini = 0.482\nsamples = 69\nvalue = [0, 6, 10, 48, 5, 0, 0, 0, 0, 0, 0, 0, 0, 0\n0, 0]\nclass =  ", fillcolor="#b3ee7f"] ;
74 -> 75 ;
76 [label="FEMALE <= 0.5\ngini = 0.375\nsamples = 4\nvalue = [0, 3, 1, 0, 0, 0, 0, 0, 0, 0, 0, 0, 0, 0\n0, 0]\nclass = 0", fillcolor="#eed57b"] ;
75 -> 76 ;
77 [label="gini = 0.0\nsamples = 2\nvalue = [0, 2, 0, 0, 0, 0, 0, 0, 0, 0, 0, 0, 0, 0\n0, 0]\nclass = 0", fillcolor="#e5c039"] ;
76 -> 77 ;
78 [label="APRDRG <= 193.5\ngini = 0.5\nsamples = 2\nvalue = [0, 1, 1, 0, 0, 0, 0, 0, 0, 0, 0, 0, 0, 0\n0, 0]\nclass = 0", fillcolor="#ffffff"] ;
76 -> 78 ;
79 [label="gini = 0.0\nsamples = 1\nvalue = [0, 1, 0, 0, 0, 0, 0, 0, 0, 0, 0, 0, 0, 0\n0, 0]\nclass = 0", fillcolor="#e5c039"] ;
78 -> 79 ;
80 [label="gini = 0.0\nsamples = 1\nvalue = [0, 0, 1, 0, 0, 0, 0, 0, 0, 0, 0, 0, 0, 0\n0, 0]\nclass = ,", fillcolor="#c8e539"] ;
78 -> 80 ;
81 [label="TOTCHG <= 2039.0\ngini = 0.427\nsamples = 65\nvalue = [0, 3, 9, 48, 5, 0, 0, 0, 0, 0, 0, 0, 0, 0\n0, 0]\nclass =  ", fillcolor="#aded75"] ;
75 -> 81 ;
82 [label="FEMALE <= 0.5\ngini = 0.375\nsamples = 47\nvalue = [0, 2, 9, 36, 0, 0, 0, 0, 0, 0, 0, 0, 0, 0\n0, 0]\nclass =  ", fillcolor="#abed72"] ;
81 -> 82 ;
83 [label="TOTCHG <= 1695.0\ngini = 0.435\nsamples = 25\nvalue = [0, 0, 8, 17, 0, 0, 0, 0, 0, 0, 0, 0, 0, 0\n0, 0]\nclass =  ", fillcolor="#c1f196"] ;
82 -> 83 ;
84 [label="AGE <= 7.5\ngini = 0.48\nsamples = 5\nvalue = [0, 0, 3, 2, 0, 0, 0, 0, 0, 0, 0, 0, 0, 0\n0, 0]\nclass = ,", fillcolor="#edf6bd"] ;
83 -> 84 ;
85 [label="TOTCHG <= 1681.5\ngini = 0.444\nsamples = 3\nvalue = [0, 0, 1, 2, 0, 0, 0, 0, 0, 0, 0, 0, 0, 0\n0, 0]\nclass =  ", fillcolor="#c4f29c"] ;
84 -> 85 ;
86 [label="gini = 0.0\nsamples = 2\nvalue = [0, 0, 0, 2, 0, 0, 0, 0, 0, 0, 0, 0, 0, 0\n0, 0]\nclass =  ", fillcolor="#89e539"] ;
85 -> 86 ;
87 [label="gini = 0.0\nsamples = 1\nvalue = [0, 0, 1, 0, 0, 0, 0, 0, 0, 0, 0, 0, 0, 0\n0, 0]\nclass = ,", fillcolor="#c8e539"] ;
85 -> 87 ;
88 [label="gini = 0.0\nsamples = 2\nvalue = [0, 0, 2, 0, 0, 0, 0, 0, 0, 0, 0, 0, 0, 0\n0, 0]\nclass = ,", fillcolor="#c8e539"] ;
84 -> 88 ;
89 [label="APRDRG <= 637.0\ngini = 0.375\nsamples = 20\nvalue = [0, 0, 5, 15, 0, 0, 0, 0, 0, 0, 0, 0, 0, 0\n0, 0]\nclass =  ", fillcolor="#b0ee7b"] ;
83 -> 89 ;
90 [label="gini = 0.0\nsamples = 1\nvalue = [0, 0, 1, 0, 0, 0, 0, 0, 0, 0, 0, 0, 0, 0\n0, 0]\nclass = ,", fillcolor="#c8e539"] ;
89 -> 90 ;
91 [label="TOTCHG <= 1970.0\ngini = 0.332\nsamples = 19\nvalue = [0, 0, 4, 15, 0, 0, 0, 0, 0, 0, 0, 0, 0, 0\n0, 0]\nclass =  ", fillcolor="#a8ec6e"] ;
89 -> 91 ;
92 [label="TOTCHG <= 1806.5\ngini = 0.231\nsamples = 15\nvalue = [0, 0, 2, 13, 0, 0, 0, 0, 0, 0, 0, 0, 0, 0\n0, 0]\nclass =  ", fillcolor="#9be957"] ;
91 -> 92 ;
93 [label="TOTCHG <= 1788.0\ngini = 0.375\nsamples = 8\nvalue = [0, 0, 2, 6, 0, 0, 0, 0, 0, 0, 0, 0, 0, 0\n0, 0]\nclass =  ", fillcolor="#b0ee7b"] ;
92 -> 93 ;
94 [label="gini = 0.0\nsamples = 5\nvalue = [0, 0, 0, 5, 0, 0, 0, 0, 0, 0, 0, 0, 0, 0\n0, 0]\nclass =  ", fillcolor="#89e539"] ;
93 -> 94 ;
95 [label="TOTCHG <= 1794.5\ngini = 0.444\nsamples = 3\nvalue = [0, 0, 2, 1, 0, 0, 0, 0, 0, 0, 0, 0, 0, 0\n0, 0]\nclass = ,", fillcolor="#e4f29c"] ;
93 -> 95 ;
96 [label="gini = 0.0\nsamples = 1\nvalue = [0, 0, 1, 0, 0, 0, 0, 0, 0, 0, 0, 0, 0, 0\n0, 0]\nclass = ,", fillcolor="#c8e539"] ;
95 -> 96 ;
97 [label="TOTCHG <= 1800.0\ngini = 0.5\nsamples = 2\nvalue = [0, 0, 1, 1, 0, 0, 0, 0, 0, 0, 0, 0, 0, 0\n0, 0]\nclass = ,", fillcolor="#ffffff"] ;
95 -> 97 ;
98 [label="gini = 0.0\nsamples = 1\nvalue = [0, 0, 0, 1, 0, 0, 0, 0, 0, 0, 0, 0, 0, 0\n0, 0]\nclass =  ", fillcolor="#89e539"] ;
97 -> 98 ;
99 [label="gini = 0.0\nsamples = 1\nvalue = [0, 0, 1, 0, 0, 0, 0, 0, 0, 0, 0, 0, 0, 0\n0, 0]\nclass = ,", fillcolor="#c8e539"] ;
97 -> 99 ;
100 [label="gini = 0.0\nsamples = 7\nvalue = [0, 0, 0, 7, 0, 0, 0, 0, 0, 0, 0, 0, 0, 0\n0, 0]\nclass =  ", fillcolor="#89e539"] ;
92 -> 100 ;
101 [label="TOTCHG <= 1989.5\ngini = 0.5\nsamples = 4\nvalue = [0, 0, 2, 2, 0, 0, 0, 0, 0, 0, 0, 0, 0, 0\n0, 0]\nclass = ,", fillcolor="#ffffff"] ;
91 -> 101 ;
102 [label="gini = 0.0\nsamples = 2\nvalue = [0, 0, 2, 0, 0, 0, 0, 0, 0, 0, 0, 0, 0, 0\n0, 0]\nclass = ,", fillcolor="#c8e539"] ;
101 -> 102 ;
103 [label="gini = 0.0\nsamples = 2\nvalue = [0, 0, 0, 2, 0, 0, 0, 0, 0, 0, 0, 0, 0, 0\n0, 0]\nclass =  ", fillcolor="#89e539"] ;
101 -> 103 ;
104 [label="APRDRG <= 681.5\ngini = 0.244\nsamples = 22\nvalue = [0, 2, 1, 19, 0, 0, 0, 0, 0, 0, 0, 0, 0, 0\n0, 0]\nclass =  ", fillcolor="#9be957"] ;
82 -> 104 ;
105 [label="TOTCHG <= 1848.0\ngini = 0.124\nsamples = 15\nvalue = [0, 0, 1, 14, 0, 0, 0, 0, 0, 0, 0, 0, 0, 0\n0, 0]\nclass =  ", fillcolor="#91e747"] ;
104 -> 105 ;
106 [label="gini = 0.0\nsamples = 8\nvalue = [0, 0, 0, 8, 0, 0, 0, 0, 0, 0, 0, 0, 0, 0\n0, 0]\nclass =  ", fillcolor="#89e539"] ;
105 -> 106 ;
107 [label="TOTCHG <= 1880.5\ngini = 0.245\nsamples = 7\nvalue = [0, 0, 1, 6, 0, 0, 0, 0, 0, 0, 0, 0, 0, 0\n0, 0]\nclass =  ", fillcolor="#9de95a"] ;
105 -> 107 ;
108 [label="gini = 0.0\nsamples = 1\nvalue = [0, 0, 1, 0, 0, 0, 0, 0, 0, 0, 0, 0, 0, 0\n0, 0]\nclass = ,", fillcolor="#c8e539"] ;
107 -> 108 ;
109 [label="gini = 0.0\nsamples = 6\nvalue = [0, 0, 0, 6, 0, 0, 0, 0, 0, 0, 0, 0, 0, 0\n0, 0]\nclass =  ", fillcolor="#89e539"] ;
107 -> 109 ;
110 [label="AGE <= 13.5\ngini = 0.408\nsamples = 7\nvalue = [0, 2, 0, 5, 0, 0, 0, 0, 0, 0, 0, 0, 0, 0\n0, 0]\nclass =  ", fillcolor="#b8ef88"] ;
104 -> 110 ;
111 [label="TOTCHG <= 1773.0\ngini = 0.444\nsamples = 3\nvalue = [0, 2, 0, 1, 0, 0, 0, 0, 0, 0, 0, 0, 0, 0\n0, 0]\nclass = 0", fillcolor="#f2e09c"] ;
110 -> 111 ;
112 [label="gini = 0.0\nsamples = 2\nvalue = [0, 2, 0, 0, 0, 0, 0, 0, 0, 0, 0, 0, 0, 0\n0, 0]\nclass = 0", fillcolor="#e5c039"] ;
111 -> 112 ;
113 [label="gini = 0.0\nsamples = 1\nvalue = [0, 0, 0, 1, 0, 0, 0, 0, 0, 0, 0, 0, 0, 0\n0, 0]\nclass =  ", fillcolor="#89e539"] ;
111 -> 113 ;
114 [label="gini = 0.0\nsamples = 4\nvalue = [0, 0, 0, 4, 0, 0, 0, 0, 0, 0, 0, 0, 0, 0\n0, 0]\nclass =  ", fillcolor="#89e539"] ;
110 -> 114 ;
115 [label="APRDRG <= 754.5\ngini = 0.475\nsamples = 18\nvalue = [0, 1, 0, 12, 5, 0, 0, 0, 0, 0, 0, 0, 0, 0\n0, 0]\nclass =  ", fillcolor="#bff194"] ;
81 -> 115 ;
116 [label="TOTCHG <= 2050.0\ngini = 0.375\nsamples = 16\nvalue = [0, 0, 0, 12, 4, 0, 0, 0, 0, 0, 0, 0, 0, 0\n0, 0]\nclass =  ", fillcolor="#b0ee7b"] ;
115 -> 116 ;
117 [label="gini = 0.0\nsamples = 1\nvalue = [0, 0, 0, 0, 1, 0, 0, 0, 0, 0, 0, 0, 0, 0\n0, 0]\nclass = 1", fillcolor="#47e539"] ;
116 -> 117 ;
118 [label="TOTCHG <= 2139.0\ngini = 0.32\nsamples = 15\nvalue = [0, 0, 0, 12, 3, 0, 0, 0, 0, 0, 0, 0, 0, 0\n0, 0]\nclass =  ", fillcolor="#a6ec6a"] ;
116 -> 118 ;
119 [label="TOTCHG <= 2089.5\ngini = 0.444\nsamples = 9\nvalue = [0, 0, 0, 6, 3, 0, 0, 0, 0, 0, 0, 0, 0, 0\n0, 0]\nclass =  ", fillcolor="#c4f29c"] ;
118 -> 119 ;
120 [label="gini = 0.0\nsamples = 4\nvalue = [0, 0, 0, 4, 0, 0, 0, 0, 0, 0, 0, 0, 0, 0\n0, 0]\nclass =  ", fillcolor="#89e539"] ;
119 -> 120 ;
121 [label="APRDRG <= 639.5\ngini = 0.48\nsamples = 5\nvalue = [0, 0, 0, 2, 3, 0, 0, 0, 0, 0, 0, 0, 0, 0\n0, 0]\nclass = 1", fillcolor="#c2f6bd"] ;
119 -> 121 ;
122 [label="TOTCHG <= 2131.5\ngini = 0.444\nsamples = 3\nvalue = [0, 0, 0, 2, 1, 0, 0, 0, 0, 0, 0, 0, 0, 0\n0, 0]\nclass =  ", fillcolor="#c4f29c"] ;
121 -> 122 ;
123 [label="gini = 0.0\nsamples = 2\nvalue = [0, 0, 0, 2, 0, 0, 0, 0, 0, 0, 0, 0, 0, 0\n0, 0]\nclass =  ", fillcolor="#89e539"] ;
122 -> 123 ;
124 [label="gini = 0.0\nsamples = 1\nvalue = [0, 0, 0, 0, 1, 0, 0, 0, 0, 0, 0, 0, 0, 0\n0, 0]\nclass = 1", fillcolor="#47e539"] ;
122 -> 124 ;
125 [label="gini = 0.0\nsamples = 2\nvalue = [0, 0, 0, 0, 2, 0, 0, 0, 0, 0, 0, 0, 0, 0\n0, 0]\nclass = 1", fillcolor="#47e539"] ;
121 -> 125 ;
126 [label="gini = 0.0\nsamples = 6\nvalue = [0, 0, 0, 6, 0, 0, 0, 0, 0, 0, 0, 0, 0, 0\n0, 0]\nclass =  ", fillcolor="#89e539"] ;
118 -> 126 ;
127 [label="AGE <= 15.5\ngini = 0.5\nsamples = 2\nvalue = [0, 1, 0, 0, 1, 0, 0, 0, 0, 0, 0, 0, 0, 0\n0, 0]\nclass = 0", fillcolor="#ffffff"] ;
115 -> 127 ;
128 [label="gini = 0.0\nsamples = 1\nvalue = [0, 0, 0, 0, 1, 0, 0, 0, 0, 0, 0, 0, 0, 0\n0, 0]\nclass = 1", fillcolor="#47e539"] ;
127 -> 128 ;
129 [label="gini = 0.0\nsamples = 1\nvalue = [0, 1, 0, 0, 0, 0, 0, 0, 0, 0, 0, 0, 0, 0\n0, 0]\nclass = 0", fillcolor="#e5c039"] ;
127 -> 129 ;
130 [label="APRDRG <= 560.5\ngini = 0.868\nsamples = 121\nvalue = [6, 15, 19, 17, 28, 10, 8, 8, 1, 2, 1, 2, 1\n1, 1, 1]\nclass = 1", fillcolor="#effdee"] ;
74 -> 130 ;
131 [label="TOTCHG <= 14651.5\ngini = 0.778\nsamples = 44\nvalue = [3, 11, 15, 8, 2, 0, 2, 1, 0, 1, 0, 0, 0, 0\n1, 0]\nclass = ,", fillcolor="#f8fce7"] ;
130 -> 131 ;
132 [label="APRDRG <= 55.0\ngini = 0.722\nsamples = 39\nvalue = [3, 11, 15, 8, 2, 0, 0, 0, 0, 0, 0, 0, 0, 0\n0, 0]\nclass = ,", fillcolor="#f7fbe3"] ;
131 -> 132 ;
133 [label="TOTCHG <= 7986.5\ngini = 0.569\nsamples = 12\nvalue = [0, 0, 7, 3, 2, 0, 0, 0, 0, 0, 0, 0, 0, 0\n0, 0]\nclass = ,", fillcolor="#e7f3a7"] ;
132 -> 133 ;
134 [label="TOTCHG <= 7473.0\ngini = 0.5\nsamples = 6\nvalue = [0, 0, 3, 3, 0, 0, 0, 0, 0, 0, 0, 0, 0, 0\n0, 0]\nclass = ,", fillcolor="#ffffff"] ;
133 -> 134 ;
135 [label="TOTCHG <= 3402.5\ngini = 0.375\nsamples = 4\nvalue = [0, 0, 3, 1, 0, 0, 0, 0, 0, 0, 0, 0, 0, 0\n0, 0]\nclass = ,", fillcolor="#daee7b"] ;
134 -> 135 ;
136 [label="gini = 0.0\nsamples = 1\nvalue = [0, 0, 0, 1, 0, 0, 0, 0, 0, 0, 0, 0, 0, 0\n0, 0]\nclass =  ", fillcolor="#89e539"] ;
135 -> 136 ;
137 [label="gini = 0.0\nsamples = 3\nvalue = [0, 0, 3, 0, 0, 0, 0, 0, 0, 0, 0, 0, 0, 0\n0, 0]\nclass = ,", fillcolor="#c8e539"] ;
135 -> 137 ;
138 [label="gini = 0.0\nsamples = 2\nvalue = [0, 0, 0, 2, 0, 0, 0, 0, 0, 0, 0, 0, 0, 0\n0, 0]\nclass =  ", fillcolor="#89e539"] ;
134 -> 138 ;
139 [label="AGE <= 9.5\ngini = 0.444\nsamples = 6\nvalue = [0, 0, 4, 0, 2, 0, 0, 0, 0, 0, 0, 0, 0, 0\n0, 0]\nclass = ,", fillcolor="#e4f29c"] ;
133 -> 139 ;
140 [label="gini = 0.0\nsamples = 2\nvalue = [0, 0, 2, 0, 0, 0, 0, 0, 0, 0, 0, 0, 0, 0\n0, 0]\nclass = ,", fillcolor="#c8e539"] ;
139 -> 140 ;
141 [label="APRDRG <= 38.0\ngini = 0.5\nsamples = 4\nvalue = [0, 0, 2, 0, 2, 0, 0, 0, 0, 0, 0, 0, 0, 0\n0, 0]\nclass = ,", fillcolor="#ffffff"] ;
139 -> 141 ;
142 [label="gini = 0.0\nsamples = 2\nvalue = [0, 0, 2, 0, 0, 0, 0, 0, 0, 0, 0, 0, 0, 0\n0, 0]\nclass = ,", fillcolor="#c8e539"] ;
141 -> 142 ;
143 [label="gini = 0.0\nsamples = 2\nvalue = [0, 0, 0, 0, 2, 0, 0, 0, 0, 0, 0, 0, 0, 0\n0, 0]\nclass = 1", fillcolor="#47e539"] ;
141 -> 143 ;
144 [label="APRDRG <= 328.5\ngini = 0.7\nsamples = 27\nvalue = [3, 11, 8, 5, 0, 0, 0, 0, 0, 0, 0, 0, 0, 0\n0, 0]\nclass = 0", fillcolor="#fbf5e0"] ;
132 -> 144 ;
145 [label="AGE <= 0.5\ngini = 0.609\nsamples = 19\nvalue = [0, 10, 5, 4, 0, 0, 0, 0, 0, 0, 0, 0, 0, 0\n0, 0]\nclass = 0", fillcolor="#f6e8b8"] ;
144 -> 145 ;
146 [label="TOTCHG <= 3391.0\ngini = 0.375\nsamples = 4\nvalue = [0, 1, 3, 0, 0, 0, 0, 0, 0, 0, 0, 0, 0, 0\n0, 0]\nclass = ,", fillcolor="#daee7b"] ;
145 -> 146 ;
147 [label="gini = 0.0\nsamples = 1\nvalue = [0, 1, 0, 0, 0, 0, 0, 0, 0, 0, 0, 0, 0, 0\n0, 0]\nclass = 0", fillcolor="#e5c039"] ;
146 -> 147 ;
148 [label="gini = 0.0\nsamples = 3\nvalue = [0, 0, 3, 0, 0, 0, 0, 0, 0, 0, 0, 0, 0, 0\n0, 0]\nclass = ,", fillcolor="#c8e539"] ;
146 -> 148 ;
149 [label="TOTCHG <= 8278.5\ngini = 0.551\nsamples = 15\nvalue = [0, 9, 2, 4, 0, 0, 0, 0, 0, 0, 0, 0, 0, 0\n0, 0]\nclass = 0", fillcolor="#f3e2a5"] ;
145 -> 149 ;
150 [label="AGE <= 2.0\ngini = 0.219\nsamples = 8\nvalue = [0, 7, 0, 1, 0, 0, 0, 0, 0, 0, 0, 0, 0, 0\n0, 0]\nclass = 0", fillcolor="#e9c955"] ;
149 -> 150 ;
151 [label="APRDRG <= 194.0\ngini = 0.5\nsamples = 2\nvalue = [0, 1, 0, 1, 0, 0, 0, 0, 0, 0, 0, 0, 0, 0\n0, 0]\nclass = 0", fillcolor="#ffffff"] ;
150 -> 151 ;
152 [label="gini = 0.0\nsamples = 1\nvalue = [0, 0, 0, 1, 0, 0, 0, 0, 0, 0, 0, 0, 0, 0\n0, 0]\nclass =  ", fillcolor="#89e539"] ;
151 -> 152 ;
153 [label="gini = 0.0\nsamples = 1\nvalue = [0, 1, 0, 0, 0, 0, 0, 0, 0, 0, 0, 0, 0, 0\n0, 0]\nclass = 0", fillcolor="#e5c039"] ;
151 -> 153 ;
154 [label="gini = 0.0\nsamples = 6\nvalue = [0, 6, 0, 0, 0, 0, 0, 0, 0, 0, 0, 0, 0, 0\n0, 0]\nclass = 0", fillcolor="#e5c039"] ;
150 -> 154 ;
155 [label="TOTCHG <= 10573.5\ngini = 0.653\nsamples = 7\nvalue = [0, 2, 2, 3, 0, 0, 0, 0, 0, 0, 0, 0, 0, 0\n0, 0]\nclass =  ", fillcolor="#e7fad7"] ;
149 -> 155 ;
156 [label="TOTCHG <= 9179.5\ngini = 0.48\nsamples = 5\nvalue = [0, 0, 2, 3, 0, 0, 0, 0, 0, 0, 0, 0, 0, 0\n0, 0]\nclass =  ", fillcolor="#d8f6bd"] ;
155 -> 156 ;
157 [label="AGE <= 15.5\ngini = 0.444\nsamples = 3\nvalue = [0, 0, 2, 1, 0, 0, 0, 0, 0, 0, 0, 0, 0, 0\n0, 0]\nclass = ,", fillcolor="#e4f29c"] ;
156 -> 157 ;
158 [label="gini = 0.0\nsamples = 2\nvalue = [0, 0, 2, 0, 0, 0, 0, 0, 0, 0, 0, 0, 0, 0\n0, 0]\nclass = ,", fillcolor="#c8e539"] ;
157 -> 158 ;
159 [label="gini = 0.0\nsamples = 1\nvalue = [0, 0, 0, 1, 0, 0, 0, 0, 0, 0, 0, 0, 0, 0\n0, 0]\nclass =  ", fillcolor="#89e539"] ;
157 -> 159 ;
160 [label="gini = 0.0\nsamples = 2\nvalue = [0, 0, 0, 2, 0, 0, 0, 0, 0, 0, 0, 0, 0, 0\n0, 0]\nclass =  ", fillcolor="#89e539"] ;
156 -> 160 ;
161 [label="gini = 0.0\nsamples = 2\nvalue = [0, 2, 0, 0, 0, 0, 0, 0, 0, 0, 0, 0, 0, 0\n0, 0]\nclass = 0", fillcolor="#e5c039"] ;
155 -> 161 ;
162 [label="APRDRG <= 383.5\ngini = 0.688\nsamples = 8\nvalue = [3, 1, 3, 1, 0, 0, 0, 0, 0, 0, 0, 0, 0, 0\n0, 0]\nclass = [", fillcolor="#ffffff"] ;
144 -> 162 ;
163 [label="gini = 0.0\nsamples = 3\nvalue = [3, 0, 0, 0, 0, 0, 0, 0, 0, 0, 0, 0, 0, 0\n0, 0]\nclass = [", fillcolor="#e58139"] ;
162 -> 163 ;
164 [label="AGE <= 5.5\ngini = 0.56\nsamples = 5\nvalue = [0, 1, 3, 1, 0, 0, 0, 0, 0, 0, 0, 0, 0, 0\n0, 0]\nclass = ,", fillcolor="#e4f29c"] ;
162 -> 164 ;
165 [label="gini = 0.0\nsamples = 1\nvalue = [0, 0, 0, 1, 0, 0, 0, 0, 0, 0, 0, 0, 0, 0\n0, 0]\nclass =  ", fillcolor="#89e539"] ;
164 -> 165 ;
166 [label="FEMALE <= 0.5\ngini = 0.375\nsamples = 4\nvalue = [0, 1, 3, 0, 0, 0, 0, 0, 0, 0, 0, 0, 0, 0\n0, 0]\nclass = ,", fillcolor="#daee7b"] ;
164 -> 166 ;
167 [label="TOTCHG <= 3178.5\ngini = 0.5\nsamples = 2\nvalue = [0, 1, 1, 0, 0, 0, 0, 0, 0, 0, 0, 0, 0, 0\n0, 0]\nclass = 0", fillcolor="#ffffff"] ;
166 -> 167 ;
168 [label="gini = 0.0\nsamples = 1\nvalue = [0, 1, 0, 0, 0, 0, 0, 0, 0, 0, 0, 0, 0, 0\n0, 0]\nclass = 0", fillcolor="#e5c039"] ;
167 -> 168 ;
169 [label="gini = 0.0\nsamples = 1\nvalue = [0, 0, 1, 0, 0, 0, 0, 0, 0, 0, 0, 0, 0, 0\n0, 0]\nclass = ,", fillcolor="#c8e539"] ;
167 -> 169 ;
170 [label="gini = 0.0\nsamples = 2\nvalue = [0, 0, 2, 0, 0, 0, 0, 0, 0, 0, 0, 0, 0, 0\n0, 0]\nclass = ,", fillcolor="#c8e539"] ;
166 -> 170 ;
171 [label="APRDRG <= 126.0\ngini = 0.72\nsamples = 5\nvalue = [0, 0, 0, 0, 0, 0, 2, 1, 0, 1, 0, 0, 0, 0\n1, 0]\nclass =  ", fillcolor="#cef8ea"] ;
131 -> 171 ;
172 [label="gini = 0.0\nsamples = 2\nvalue = [0, 0, 0, 0, 0, 0, 2, 0, 0, 0, 0, 0, 0, 0\n0, 0]\nclass =  ", fillcolor="#39e5ac"] ;
171 -> 172 ;
173 [label="TOTCHG <= 16326.5\ngini = 0.667\nsamples = 3\nvalue = [0, 0, 0, 0, 0, 0, 0, 1, 0, 1, 0, 0, 0, 0\n1, 0]\nclass = 2", fillcolor="#ffffff"] ;
171 -> 173 ;
174 [label="gini = 0.0\nsamples = 1\nvalue = [0, 0, 0, 0, 0, 0, 0, 0, 0, 1, 0, 0, 0, 0\n0, 0]\nclass =  ", fillcolor="#395ee5"] ;
173 -> 174 ;
175 [label="TOTCHG <= 21940.0\ngini = 0.5\nsamples = 2\nvalue = [0, 0, 0, 0, 0, 0, 0, 1, 0, 0, 0, 0, 0, 0\n1, 0]\nclass = 2", fillcolor="#ffffff"] ;
173 -> 175 ;
176 [label="gini = 0.0\nsamples = 1\nvalue = [0, 0, 0, 0, 0, 0, 0, 1, 0, 0, 0, 0, 0, 0\n0, 0]\nclass = 2", fillcolor="#39dfe5"] ;
175 -> 176 ;
177 [label="gini = 0.0\nsamples = 1\nvalue = [0, 0, 0, 0, 0, 0, 0, 0, 0, 0, 0, 0, 0, 0\n1, 0]\nclass = ,", fillcolor="#e53972"] ;
175 -> 177 ;
178 [label="TOTCHG <= 3087.5\ngini = 0.833\nsamples = 77\nvalue = [3, 4, 4, 9, 26, 10, 6, 7, 1, 1, 1, 2, 1, 1\n0, 1]\nclass = 1", fillcolor="#d3f9d0"] ;
130 -> 178 ;
179 [label="APRDRG <= 603.5\ngini = 0.572\nsamples = 32\nvalue = [3, 0, 2, 4, 20, 3, 0, 0, 0, 0, 0, 0, 0, 0\n0, 0]\nclass = 1", fillcolor="#96f08e"] ;
178 -> 179 ;
180 [label="APRDRG <= 571.0\ngini = 0.444\nsamples = 3\nvalue = [2, 0, 0, 0, 1, 0, 0, 0, 0, 0, 0, 0, 0, 0\n0, 0]\nclass = [", fillcolor="#f2c09c"] ;
179 -> 180 ;
181 [label="gini = 0.0\nsamples = 1\nvalue = [0, 0, 0, 0, 1, 0, 0, 0, 0, 0, 0, 0, 0, 0\n0, 0]\nclass = 1", fillcolor="#47e539"] ;
180 -> 181 ;
182 [label="gini = 0.0\nsamples = 2\nvalue = [2, 0, 0, 0, 0, 0, 0, 0, 0, 0, 0, 0, 0, 0\n0, 0]\nclass = [", fillcolor="#e58139"] ;
180 -> 182 ;
183 [label="APRDRG <= 784.5\ngini = 0.535\nsamples = 29\nvalue = [1, 0, 2, 4, 19, 3, 0, 0, 0, 0, 0, 0, 0, 0\n0, 0]\nclass = 1", fillcolor="#91ef88"] ;
179 -> 183 ;
184 [label="RACE <= 3.5\ngini = 0.503\nsamples = 28\nvalue = [0, 0, 2, 4, 19, 3, 0, 0, 0, 0, 0, 0, 0, 0\n0, 0]\nclass = 1", fillcolor="#8cef83"] ;
183 -> 184 ;
185 [label="FEMALE <= 0.5\ngini = 0.472\nsamples = 27\nvalue = [0, 0, 2, 4, 19, 2, 0, 0, 0, 0, 0, 0, 0, 0\n0, 0]\nclass = 1", fillcolor="#87ee7e"] ;
184 -> 185 ;
186 [label="TOTCHG <= 2546.5\ngini = 0.653\nsamples = 7\nvalue = [0, 0, 2, 2, 3, 0, 0, 0, 0, 0, 0, 0, 0, 0\n0, 0]\nclass = 1", fillcolor="#dafad7"] ;
185 -> 186 ;
187 [label="TOTCHG <= 2344.5\ngini = 0.64\nsamples = 5\nvalue = [0, 0, 2, 2, 1, 0, 0, 0, 0, 0, 0, 0, 0, 0\n0, 0]\nclass = ,", fillcolor="#ffffff"] ;
186 -> 187 ;
188 [label="TOTCHG <= 2253.0\ngini = 0.5\nsamples = 2\nvalue = [0, 0, 0, 1, 1, 0, 0, 0, 0, 0, 0, 0, 0, 0\n0, 0]\nclass =  ", fillcolor="#ffffff"] ;
187 -> 188 ;
189 [label="gini = 0.0\nsamples = 1\nvalue = [0, 0, 0, 1, 0, 0, 0, 0, 0, 0, 0, 0, 0, 0\n0, 0]\nclass =  ", fillcolor="#89e539"] ;
188 -> 189 ;
190 [label="gini = 0.0\nsamples = 1\nvalue = [0, 0, 0, 0, 1, 0, 0, 0, 0, 0, 0, 0, 0, 0\n0, 0]\nclass = 1", fillcolor="#47e539"] ;
188 -> 190 ;
191 [label="APRDRG <= 696.5\ngini = 0.444\nsamples = 3\nvalue = [0, 0, 2, 1, 0, 0, 0, 0, 0, 0, 0, 0, 0, 0\n0, 0]\nclass = ,", fillcolor="#e4f29c"] ;
187 -> 191 ;
192 [label="TOTCHG <= 2528.0\ngini = 0.5\nsamples = 2\nvalue = [0, 0, 1, 1, 0, 0, 0, 0, 0, 0, 0, 0, 0, 0\n0, 0]\nclass = ,", fillcolor="#ffffff"] ;
191 -> 192 ;
193 [label="gini = 0.0\nsamples = 1\nvalue = [0, 0, 0, 1, 0, 0, 0, 0, 0, 0, 0, 0, 0, 0\n0, 0]\nclass =  ", fillcolor="#89e539"] ;
192 -> 193 ;
194 [label="gini = 0.0\nsamples = 1\nvalue = [0, 0, 1, 0, 0, 0, 0, 0, 0, 0, 0, 0, 0, 0\n0, 0]\nclass = ,", fillcolor="#c8e539"] ;
192 -> 194 ;
195 [label="gini = 0.0\nsamples = 1\nvalue = [0, 0, 1, 0, 0, 0, 0, 0, 0, 0, 0, 0, 0, 0\n0, 0]\nclass = ,", fillcolor="#c8e539"] ;
191 -> 195 ;
196 [label="gini = 0.0\nsamples = 2\nvalue = [0, 0, 0, 0, 2, 0, 0, 0, 0, 0, 0, 0, 0, 0\n0, 0]\nclass = 1", fillcolor="#47e539"] ;
186 -> 196 ;
197 [label="TOTCHG <= 2750.5\ngini = 0.34\nsamples = 20\nvalue = [0, 0, 0, 2, 16, 2, 0, 0, 0, 0, 0, 0, 0, 0\n0, 0]\nclass = 1", fillcolor="#70eb65"] ;
185 -> 197 ;
198 [label="AGE <= 6.5\ngini = 0.142\nsamples = 13\nvalue = [0, 0, 0, 1, 12, 0, 0, 0, 0, 0, 0, 0, 0, 0\n0, 0]\nclass = 1", fillcolor="#56e749"] ;
197 -> 198 ;
199 [label="TOTCHG <= 2436.0\ngini = 0.32\nsamples = 5\nvalue = [0, 0, 0, 1, 4, 0, 0, 0, 0, 0, 0, 0, 0, 0\n0, 0]\nclass = 1", fillcolor="#75ec6a"] ;
198 -> 199 ;
200 [label="TOTCHG <= 2317.0\ngini = 0.5\nsamples = 2\nvalue = [0, 0, 0, 1, 1, 0, 0, 0, 0, 0, 0, 0, 0, 0\n0, 0]\nclass =  ", fillcolor="#ffffff"] ;
199 -> 200 ;
201 [label="gini = 0.0\nsamples = 1\nvalue = [0, 0, 0, 0, 1, 0, 0, 0, 0, 0, 0, 0, 0, 0\n0, 0]\nclass = 1", fillcolor="#47e539"] ;
200 -> 201 ;
202 [label="gini = 0.0\nsamples = 1\nvalue = [0, 0, 0, 1, 0, 0, 0, 0, 0, 0, 0, 0, 0, 0\n0, 0]\nclass =  ", fillcolor="#89e539"] ;
200 -> 202 ;
203 [label="gini = 0.0\nsamples = 3\nvalue = [0, 0, 0, 0, 3, 0, 0, 0, 0, 0, 0, 0, 0, 0\n0, 0]\nclass = 1", fillcolor="#47e539"] ;
199 -> 203 ;
204 [label="gini = 0.0\nsamples = 8\nvalue = [0, 0, 0, 0, 8, 0, 0, 0, 0, 0, 0, 0, 0, 0\n0, 0]\nclass = 1", fillcolor="#47e539"] ;
198 -> 204 ;
205 [label="TOTCHG <= 2810.5\ngini = 0.571\nsamples = 7\nvalue = [0, 0, 0, 1, 4, 2, 0, 0, 0, 0, 0, 0, 0, 0\n0, 0]\nclass = 1", fillcolor="#b5f5b0"] ;
197 -> 205 ;
206 [label="gini = 0.0\nsamples = 1\nvalue = [0, 0, 0, 1, 0, 0, 0, 0, 0, 0, 0, 0, 0, 0\n0, 0]\nclass =  ", fillcolor="#89e539"] ;
205 -> 206 ;
207 [label="APRDRG <= 695.5\ngini = 0.444\nsamples = 6\nvalue = [0, 0, 0, 0, 4, 2, 0, 0, 0, 0, 0, 0, 0, 0\n0, 0]\nclass = 1", fillcolor="#a3f29c"] ;
205 -> 207 ;
208 [label="gini = 0.0\nsamples = 2\nvalue = [0, 0, 0, 0, 2, 0, 0, 0, 0, 0, 0, 0, 0, 0\n0, 0]\nclass = 1", fillcolor="#47e539"] ;
207 -> 208 ;
209 [label="RACE <= 1.5\ngini = 0.5\nsamples = 4\nvalue = [0, 0, 0, 0, 2, 2, 0, 0, 0, 0, 0, 0, 0, 0\n0, 0]\nclass = 1", fillcolor="#ffffff"] ;
207 -> 209 ;
210 [label="APRDRG <= 752.5\ngini = 0.444\nsamples = 3\nvalue = [0, 0, 0, 0, 1, 2, 0, 0, 0, 0, 0, 0, 0, 0\n0, 0]\nclass = ,", fillcolor="#9cf2b4"] ;
209 -> 210 ;
211 [label="gini = 0.5\nsamples = 2\nvalue = [0, 0, 0, 0, 1, 1, 0, 0, 0, 0, 0, 0, 0, 0\n0, 0]\nclass = 1", fillcolor="#ffffff"] ;
210 -> 211 ;
212 [label="gini = 0.0\nsamples = 1\nvalue = [0, 0, 0, 0, 0, 1, 0, 0, 0, 0, 0, 0, 0, 0\n0, 0]\nclass = ,", fillcolor="#39e56a"] ;
210 -> 212 ;
213 [label="gini = 0.0\nsamples = 1\nvalue = [0, 0, 0, 0, 1, 0, 0, 0, 0, 0, 0, 0, 0, 0\n0, 0]\nclass = 1", fillcolor="#47e539"] ;
209 -> 213 ;
214 [label="gini = 0.0\nsamples = 1\nvalue = [0, 0, 0, 0, 0, 1, 0, 0, 0, 0, 0, 0, 0, 0\n0, 0]\nclass = ,", fillcolor="#39e56a"] ;
184 -> 214 ;
215 [label="gini = 0.0\nsamples = 1\nvalue = [1, 0, 0, 0, 0, 0, 0, 0, 0, 0, 0, 0, 0, 0\n0, 0]\nclass = [", fillcolor="#e58139"] ;
183 -> 215 ;
216 [label="TOTCHG <= 3640.5\ngini = 0.889\nsamples = 45\nvalue = [0, 4, 2, 5, 6, 7, 6, 7, 1, 1, 1, 2, 1, 1\n0, 1]\nclass = ,", fillcolor="#ffffff"] ;
178 -> 216 ;
217 [label="AGE <= 6.0\ngini = 0.776\nsamples = 14\nvalue = [0, 2, 2, 4, 2, 4, 0, 0, 0, 0, 0, 0, 0, 0\n0, 0]\nclass =  ", fillcolor="#ffffff"] ;
216 -> 217 ;
218 [label="TOTCHG <= 3112.5\ngini = 0.571\nsamples = 7\nvalue = [0, 0, 0, 4, 2, 1, 0, 0, 0, 0, 0, 0, 0, 0\n0, 0]\nclass =  ", fillcolor="#d0f5b0"] ;
217 -> 218 ;
219 [label="gini = 0.0\nsamples = 1\nvalue = [0, 0, 0, 0, 0, 1, 0, 0, 0, 0, 0, 0, 0, 0\n0, 0]\nclass = ,", fillcolor="#39e56a"] ;
218 -> 219 ;
220 [label="TOTCHG <= 3553.0\ngini = 0.444\nsamples = 6\nvalue = [0, 0, 0, 4, 2, 0, 0, 0, 0, 0, 0, 0, 0, 0\n0, 0]\nclass =  ", fillcolor="#c4f29c"] ;
218 -> 220 ;
221 [label="TOTCHG <= 3191.5\ngini = 0.32\nsamples = 5\nvalue = [0, 0, 0, 4, 1, 0, 0, 0, 0, 0, 0, 0, 0, 0\n0, 0]\nclass =  ", fillcolor="#a6ec6a"] ;
220 -> 221 ;
222 [label="gini = 0.0\nsamples = 2\nvalue = [0, 0, 0, 2, 0, 0, 0, 0, 0, 0, 0, 0, 0, 0\n0, 0]\nclass =  ", fillcolor="#89e539"] ;
221 -> 222 ;
223 [label="TOTCHG <= 3299.5\ngini = 0.444\nsamples = 3\nvalue = [0, 0, 0, 2, 1, 0, 0, 0, 0, 0, 0, 0, 0, 0\n0, 0]\nclass =  ", fillcolor="#c4f29c"] ;
221 -> 223 ;
224 [label="gini = 0.0\nsamples = 1\nvalue = [0, 0, 0, 0, 1, 0, 0, 0, 0, 0, 0, 0, 0, 0\n0, 0]\nclass = 1", fillcolor="#47e539"] ;
223 -> 224 ;
225 [label="gini = 0.0\nsamples = 2\nvalue = [0, 0, 0, 2, 0, 0, 0, 0, 0, 0, 0, 0, 0, 0\n0, 0]\nclass =  ", fillcolor="#89e539"] ;
223 -> 225 ;
226 [label="gini = 0.0\nsamples = 1\nvalue = [0, 0, 0, 0, 1, 0, 0, 0, 0, 0, 0, 0, 0, 0\n0, 0]\nclass = 1", fillcolor="#47e539"] ;
220 -> 226 ;
227 [label="APRDRG <= 738.0\ngini = 0.653\nsamples = 7\nvalue = [0, 2, 2, 0, 0, 3, 0, 0, 0, 0, 0, 0, 0, 0\n0, 0]\nclass = ,", fillcolor="#d7fae1"] ;
217 -> 227 ;
228 [label="gini = 0.0\nsamples = 1\nvalue = [0, 1, 0, 0, 0, 0, 0, 0, 0, 0, 0, 0, 0, 0\n0, 0]\nclass = 0", fillcolor="#e5c039"] ;
227 -> 228 ;
229 [label="APRDRG <= 785.0\ngini = 0.611\nsamples = 6\nvalue = [0, 1, 2, 0, 0, 3, 0, 0, 0, 0, 0, 0, 0, 0\n0, 0]\nclass = ,", fillcolor="#cef8da"] ;
227 -> 229 ;
230 [label="AGE <= 16.0\ngini = 0.375\nsamples = 4\nvalue = [0, 0, 1, 0, 0, 3, 0, 0, 0, 0, 0, 0, 0, 0\n0, 0]\nclass = ,", fillcolor="#7bee9c"] ;
229 -> 230 ;
231 [label="gini = 0.0\nsamples = 2\nvalue = [0, 0, 0, 0, 0, 2, 0, 0, 0, 0, 0, 0, 0, 0\n0, 0]\nclass = ,", fillcolor="#39e56a"] ;
230 -> 231 ;
232 [label="TOTCHG <= 3300.0\ngini = 0.5\nsamples = 2\nvalue = [0, 0, 1, 0, 0, 1, 0, 0, 0, 0, 0, 0, 0, 0\n0, 0]\nclass = ,", fillcolor="#ffffff"] ;
230 -> 232 ;
233 [label="gini = 0.0\nsamples = 1\nvalue = [0, 0, 1, 0, 0, 0, 0, 0, 0, 0, 0, 0, 0, 0\n0, 0]\nclass = ,", fillcolor="#c8e539"] ;
232 -> 233 ;
234 [label="gini = 0.0\nsamples = 1\nvalue = [0, 0, 0, 0, 0, 1, 0, 0, 0, 0, 0, 0, 0, 0\n0, 0]\nclass = ,", fillcolor="#39e56a"] ;
232 -> 234 ;
235 [label="TOTCHG <= 3406.5\ngini = 0.5\nsamples = 2\nvalue = [0, 1, 1, 0, 0, 0, 0, 0, 0, 0, 0, 0, 0, 0\n0, 0]\nclass = 0", fillcolor="#ffffff"] ;
229 -> 235 ;
236 [label="gini = 0.0\nsamples = 1\nvalue = [0, 1, 0, 0, 0, 0, 0, 0, 0, 0, 0, 0, 0, 0\n0, 0]\nclass = 0", fillcolor="#e5c039"] ;
235 -> 236 ;
237 [label="gini = 0.0\nsamples = 1\nvalue = [0, 0, 1, 0, 0, 0, 0, 0, 0, 0, 0, 0, 0, 0\n0, 0]\nclass = ,", fillcolor="#c8e539"] ;
235 -> 237 ;
238 [label="TOTCHG <= 6461.5\ngini = 0.87\nsamples = 31\nvalue = [0, 2, 0, 1, 4, 3, 6, 7, 1, 1, 1, 2, 1, 1\n0, 1]\nclass = 2", fillcolor="#f7fefe"] ;
216 -> 238 ;
239 [label="AGE <= 16.5\ngini = 0.782\nsamples = 17\nvalue = [0, 2, 0, 0, 3, 2, 6, 3, 1, 0, 0, 0, 0, 0\n0, 0]\nclass =  ", fillcolor="#d5f9ed"] ;
238 -> 239 ;
240 [label="TOTCHG <= 3769.5\ngini = 0.755\nsamples = 14\nvalue = [0, 0, 0, 0, 3, 2, 5, 3, 1, 0, 0, 0, 0, 0\n0, 0]\nclass =  ", fillcolor="#dbfaf0"] ;
239 -> 240 ;
241 [label="gini = 0.0\nsamples = 2\nvalue = [0, 0, 0, 0, 0, 0, 2, 0, 0, 0, 0, 0, 0, 0\n0, 0]\nclass =  ", fillcolor="#39e5ac"] ;
240 -> 241 ;
242 [label="TOTCHG <= 5249.5\ngini = 0.778\nsamples = 12\nvalue = [0, 0, 0, 0, 3, 2, 3, 3, 1, 0, 0, 0, 0, 0\n0, 0]\nclass = 1", fillcolor="#ffffff"] ;
240 -> 242 ;
243 [label="TOTCHG <= 4292.0\ngini = 0.653\nsamples = 7\nvalue = [0, 0, 0, 0, 3, 2, 0, 2, 0, 0, 0, 0, 0, 0\n0, 0]\nclass = 1", fillcolor="#dafad7"] ;
242 -> 243 ;
244 [label="TOTCHG <= 3917.0\ngini = 0.5\nsamples = 4\nvalue = [0, 0, 0, 0, 2, 0, 0, 2, 0, 0, 0, 0, 0, 0\n0, 0]\nclass = 1", fillcolor="#ffffff"] ;
243 -> 244 ;
245 [label="gini = 0.0\nsamples = 1\nvalue = [0, 0, 0, 0, 0, 0, 0, 1, 0, 0, 0, 0, 0, 0\n0, 0]\nclass = 2", fillcolor="#39dfe5"] ;
244 -> 245 ;
246 [label="TOTCHG <= 4180.0\ngini = 0.444\nsamples = 3\nvalue = [0, 0, 0, 0, 2, 0, 0, 1, 0, 0, 0, 0, 0, 0\n0, 0]\nclass = 1", fillcolor="#a3f29c"] ;
244 -> 246 ;
247 [label="gini = 0.0\nsamples = 2\nvalue = [0, 0, 0, 0, 2, 0, 0, 0, 0, 0, 0, 0, 0, 0\n0, 0]\nclass = 1", fillcolor="#47e539"] ;
246 -> 247 ;
248 [label="gini = 0.0\nsamples = 1\nvalue = [0, 0, 0, 0, 0, 0, 0, 1, 0, 0, 0, 0, 0, 0\n0, 0]\nclass = 2", fillcolor="#39dfe5"] ;
246 -> 248 ;
249 [label="TOTCHG <= 4617.5\ngini = 0.444\nsamples = 3\nvalue = [0, 0, 0, 0, 1, 2, 0, 0, 0, 0, 0, 0, 0, 0\n0, 0]\nclass = ,", fillcolor="#9cf2b4"] ;
243 -> 249 ;
250 [label="gini = 0.0\nsamples = 2\nvalue = [0, 0, 0, 0, 0, 2, 0, 0, 0, 0, 0, 0, 0, 0\n0, 0]\nclass = ,", fillcolor="#39e56a"] ;
249 -> 250 ;
251 [label="gini = 0.0\nsamples = 1\nvalue = [0, 0, 0, 0, 1, 0, 0, 0, 0, 0, 0, 0, 0, 0\n0, 0]\nclass = 1", fillcolor="#47e539"] ;
249 -> 251 ;
252 [label="APRDRG <= 753.5\ngini = 0.56\nsamples = 5\nvalue = [0, 0, 0, 0, 0, 0, 3, 1, 1, 0, 0, 0, 0, 0\n0, 0]\nclass =  ", fillcolor="#9cf2d6"] ;
242 -> 252 ;
253 [label="TOTCHG <= 5907.5\ngini = 0.375\nsamples = 4\nvalue = [0, 0, 0, 0, 0, 0, 3, 1, 0, 0, 0, 0, 0, 0\n0, 0]\nclass =  ", fillcolor="#7beec8"] ;
252 -> 253 ;
254 [label="gini = 0.0\nsamples = 2\nvalue = [0, 0, 0, 0, 0, 0, 2, 0, 0, 0, 0, 0, 0, 0\n0, 0]\nclass =  ", fillcolor="#39e5ac"] ;
253 -> 254 ;
255 [label="AGE <= 8.0\ngini = 0.5\nsamples = 2\nvalue = [0, 0, 0, 0, 0, 0, 1, 1, 0, 0, 0, 0, 0, 0\n0, 0]\nclass =  ", fillcolor="#ffffff"] ;
253 -> 255 ;
256 [label="gini = 0.0\nsamples = 1\nvalue = [0, 0, 0, 0, 0, 0, 0, 1, 0, 0, 0, 0, 0, 0\n0, 0]\nclass = 2", fillcolor="#39dfe5"] ;
255 -> 256 ;
257 [label="gini = 0.0\nsamples = 1\nvalue = [0, 0, 0, 0, 0, 0, 1, 0, 0, 0, 0, 0, 0, 0\n0, 0]\nclass =  ", fillcolor="#39e5ac"] ;
255 -> 257 ;
258 [label="gini = 0.0\nsamples = 1\nvalue = [0, 0, 0, 0, 0, 0, 0, 0, 1, 0, 0, 0, 0, 0\n0, 0]\nclass = ,", fillcolor="#399de5"] ;
252 -> 258 ;
259 [label="TOTCHG <= 4013.5\ngini = 0.444\nsamples = 3\nvalue = [0, 2, 0, 0, 0, 0, 1, 0, 0, 0, 0, 0, 0, 0\n0, 0]\nclass = 0", fillcolor="#f2e09c"] ;
239 -> 259 ;
260 [label="gini = 0.0\nsamples = 1\nvalue = [0, 1, 0, 0, 0, 0, 0, 0, 0, 0, 0, 0, 0, 0\n0, 0]\nclass = 0", fillcolor="#e5c039"] ;
259 -> 260 ;
261 [label="APRDRG <= 852.5\ngini = 0.5\nsamples = 2\nvalue = [0, 1, 0, 0, 0, 0, 1, 0, 0, 0, 0, 0, 0, 0\n0, 0]\nclass = 0", fillcolor="#ffffff"] ;
259 -> 261 ;
262 [label="gini = 0.0\nsamples = 1\nvalue = [0, 0, 0, 0, 0, 0, 1, 0, 0, 0, 0, 0, 0, 0\n0, 0]\nclass =  ", fillcolor="#39e5ac"] ;
261 -> 262 ;
263 [label="gini = 0.0\nsamples = 1\nvalue = [0, 1, 0, 0, 0, 0, 0, 0, 0, 0, 0, 0, 0, 0\n0, 0]\nclass = 0", fillcolor="#e5c039"] ;
261 -> 263 ;
264 [label="APRDRG <= 620.0\ngini = 0.857\nsamples = 14\nvalue = [0, 0, 0, 1, 1, 1, 0, 4, 0, 1, 1, 2, 1, 1\n0, 1]\nclass = 2", fillcolor="#defafb"] ;
238 -> 264 ;
265 [label="APRDRG <= 608.0\ngini = 0.667\nsamples = 3\nvalue = [0, 0, 0, 0, 0, 0, 0, 0, 0, 0, 1, 0, 1, 0\n0, 1]\nclass = 3", fillcolor="#ffffff"] ;
264 -> 265 ;
266 [label="gini = 0.0\nsamples = 1\nvalue = [0, 0, 0, 0, 0, 0, 0, 0, 0, 0, 0, 0, 0, 0\n0, 1]\nclass =  ", fillcolor="#e53f39"] ;
265 -> 266 ;
267 [label="TOTCHG <= 10871.5\ngini = 0.5\nsamples = 2\nvalue = [0, 0, 0, 0, 0, 0, 0, 0, 0, 0, 1, 0, 1, 0\n0, 0]\nclass = 3", fillcolor="#ffffff"] ;
265 -> 267 ;
268 [label="gini = 0.0\nsamples = 1\nvalue = [0, 0, 0, 0, 0, 0, 0, 0, 0, 0, 1, 0, 0, 0\n0, 0]\nclass = 3", fillcolor="#5639e5"] ;
267 -> 268 ;
269 [label="gini = 0.0\nsamples = 1\nvalue = [0, 0, 0, 0, 0, 0, 0, 0, 0, 0, 0, 0, 1, 0\n0, 0]\nclass =  ", fillcolor="#d739e5"] ;
267 -> 269 ;
270 [label="TOTCHG <= 6861.0\ngini = 0.793\nsamples = 11\nvalue = [0, 0, 0, 1, 1, 1, 0, 4, 0, 1, 0, 2, 0, 1\n0, 0]\nclass = 2", fillcolor="#d3f8f9"] ;
264 -> 270 ;
271 [label="APRDRG <= 845.0\ngini = 0.5\nsamples = 2\nvalue = [0, 0, 0, 1, 0, 0, 0, 0, 0, 1, 0, 0, 0, 0\n0, 0]\nclass =  ", fillcolor="#ffffff"] ;
270 -> 271 ;
272 [label="gini = 0.0\nsamples = 1\nvalue = [0, 0, 0, 0, 0, 0, 0, 0, 0, 1, 0, 0, 0, 0\n0, 0]\nclass =  ", fillcolor="#395ee5"] ;
271 -> 272 ;
273 [label="gini = 0.0\nsamples = 1\nvalue = [0, 0, 0, 1, 0, 0, 0, 0, 0, 0, 0, 0, 0, 0\n0, 0]\nclass =  ", fillcolor="#89e539"] ;
271 -> 273 ;
274 [label="APRDRG <= 887.0\ngini = 0.716\nsamples = 9\nvalue = [0, 0, 0, 0, 1, 1, 0, 4, 0, 0, 0, 2, 0, 1\n0, 0]\nclass = 2", fillcolor="#c6f6f8"] ;
270 -> 274 ;
275 [label="TOTCHG <= 8203.5\ngini = 0.776\nsamples = 7\nvalue = [0, 0, 0, 0, 1, 1, 0, 2, 0, 0, 0, 2, 0, 1\n0, 0]\nclass = 2", fillcolor="#ffffff"] ;
274 -> 275 ;
276 [label="gini = 0.0\nsamples = 2\nvalue = [0, 0, 0, 0, 0, 0, 0, 2, 0, 0, 0, 0, 0, 0\n0, 0]\nclass = 2", fillcolor="#39dfe5"] ;
275 -> 276 ;
277 [label="TOTCHG <= 12362.5\ngini = 0.72\nsamples = 5\nvalue = [0, 0, 0, 0, 1, 1, 0, 0, 0, 0, 0, 2, 0, 1\n0, 0]\nclass = ,", fillcolor="#e4cef8"] ;
275 -> 277 ;
278 [label="TOTCHG <= 9436.0\ngini = 0.444\nsamples = 3\nvalue = [0, 0, 0, 0, 1, 0, 0, 0, 0, 0, 0, 2, 0, 0\n0, 0]\nclass = ,", fillcolor="#ca9cf2"] ;
277 -> 278 ;
279 [label="gini = 0.0\nsamples = 1\nvalue = [0, 0, 0, 0, 1, 0, 0, 0, 0, 0, 0, 0, 0, 0\n0, 0]\nclass = 1", fillcolor="#47e539"] ;
278 -> 279 ;
280 [label="gini = 0.0\nsamples = 2\nvalue = [0, 0, 0, 0, 0, 0, 0, 0, 0, 0, 0, 2, 0, 0\n0, 0]\nclass = ,", fillcolor="#9539e5"] ;
278 -> 280 ;
281 [label="APRDRG <= 791.5\ngini = 0.5\nsamples = 2\nvalue = [0, 0, 0, 0, 0, 1, 0, 0, 0, 0, 0, 0, 0, 1\n0, 0]\nclass = ,", fillcolor="#ffffff"] ;
277 -> 281 ;
282 [label="gini = 0.0\nsamples = 1\nvalue = [0, 0, 0, 0, 0, 1, 0, 0, 0, 0, 0, 0, 0, 0\n0, 0]\nclass = ,", fillcolor="#39e56a"] ;
281 -> 282 ;
283 [label="gini = 0.0\nsamples = 1\nvalue = [0, 0, 0, 0, 0, 0, 0, 0, 0, 0, 0, 0, 0, 1\n0, 0]\nclass = 4", fillcolor="#e539b4"] ;
281 -> 283 ;
284 [label="gini = 0.0\nsamples = 2\nvalue = [0, 0, 0, 0, 0, 0, 0, 2, 0, 0, 0, 0, 0, 0\n0, 0]\nclass = 2", fillcolor="#39dfe5"] ;
274 -> 284 ;
}